{
  "type": "NeuralNetwork",
  "sizes": [
    4,
    16,
    4
  ],
  "layers": [
    {
      "weights": [],
      "biases": []
    },
    {
      "weights": [
        [
          3.009551525115967,
          -0.9314183592796326,
          -6.6018266677856445,
          0.7548468112945557
        ],
        [
          4.902593612670898,
          2.178267478942871,
          -8.767834663391113,
          -0.37095198035240173
        ],
        [
          -3.4433751106262207,
          -1.1009068489074707,
          -5.530849456787109,
          0.11938155442476273
        ],
        [
          4.3019795417785645,
          2.851947546005249,
          5.163535118103027,
          -2.0760080814361572
        ],
        [
          5.981592655181885,
          -2.999863386154175,
          -3.895143508911133,
          0.0396597683429718
        ],
        [
          -3.471871852874756,
          0.12980306148529053,
          -0.35319221019744873,
          4.536752223968506
        ],
        [
          0.33441612124443054,
          -0.11176106333732605,
          0.3884788155555725,
          -8.155840873718262
        ],
        [
          3.8731114864349365,
          0.8185036778450012,
          2.7360997200012207,
          1.514900803565979
        ],
        [
          -3.4660871028900146,
          7.21660852432251,
          6.908604145050049,
          -1.1615487337112427
        ],
        [
          -1.0120058059692383,
          2.488729953765869,
          2.3454208374023438,
          5.115985870361328
        ],
        [
          -0.07121694833040237,
          0.40822187066078186,
          -0.0693950355052948,
          4.996082782745361
        ],
        [
          -3.716935396194458,
          -3.7097249031066895,
          0.969821572303772,
          2.0076470375061035
        ],
        [
          -1.887016773223877,
          -6.243978977203369,
          6.510107040405273,
          -4.123110294342041
        ],
        [
          1.720022439956665,
          13.978581428527832,
          -2.474489212036133,
          1.8080977201461792
        ],
        [
          -0.29453185200691223,
          6.544281959533691,
          5.686839580535889,
          -1.5472240447998047
        ],
        [
          -8.706497192382812,
          -1.3296550512313843,
          -1.7545620203018188,
          3.690890073776245
        ]
      ],
      "biases": [
        1.8088911771774292,
        2.358152151107788,
        3.0441441535949707,
        -6.686026096343994,
        -0.1633865386247635,
        -3.0251495838165283,
        8.547070503234863,
        -4.039248466491699,
        -5.3734025955200195,
        -5.211655616760254,
        -0.20558345317840576,
        4.1104912757873535,
        -0.8400643467903137,
        -0.37742406129837036,
        -6.3504462242126465,
        1.2757067680358887
      ]
    },
    {
      "weights": [
        [
          -6.578945159912109,
          1.667035460472107,
          -3.6971001625061035,
          3.1315650939941406,
          9.091496467590332,
          10.724506378173828,
          3.7229626178741455,
          -8.00391674041748,
          9.057073593139648,
          2.1592330932617188,
          5.274839878082275,
          -5.709694862365723,
          -1.2419393062591553,
          -0.4368473291397095,
          -11.464716911315918,
          -9.04139232635498
        ],
        [
          -12.676529884338379,
          5.344516277313232,
          2.134645700454712,
          -9.125635147094727,
          2.91131591796875,
          -1.0982732772827148,
          0.4194276034832001,
          -0.33144283294677734,
          -3.8080649375915527,
          2.9682281017303467,
          3.053959369659424,
          -11.613049507141113,
          4.982751846313477,
          8.484073638916016,
          3.2864630222320557,
          -0.07728847861289978
        ],
        [
          -2.088338851928711,
          0.24621328711509705,
          -4.243493556976318,
          1.586613655090332,
          0.15435300767421722,
          -0.9951081871986389,
          1.4942505359649658,
          -1.9628417491912842,
          0.3645024597644806,
          -1.1192272901535034,
          -2.523756980895996,
          -0.04957837238907814,
          2.507396697998047,
          0.7948218584060669,
          -0.8436857461929321,
          0.8525046110153198
        ],
        [
          0.1264333426952362,
          -0.05851905420422554,
          0.3872702717781067,
          0.0032409587875008583,
          0.15069375932216644,
          -0.0755576565861702,
          -9.460419654846191,
          0.583042562007904,
          0.06906163692474365,
          0.611015260219574,
          5.7815423011779785,
          0.3628835082054138,
          0.0820574089884758,
          -0.2464224398136139,
          -0.21640455722808838,
          0.002030616393312812
        ]
      ],
      "biases": [
        -1.033566951751709,
        0.5164541006088257,
        3.1748456954956055,
        3.3647189140319824
      ]
    }
  ],
  "inputLookup": {
    "h": 0,
    "s": 1,
    "l": 2,
    "shade": 3
  },
  "inputLookupLength": 4,
  "outputLookup": {
    "h": 0,
    "s": 1,
    "l": 2,
    "shade": 3
  },
  "outputLookupLength": 4,
  "options": {
    "inputSize": 0,
    "outputSize": 0,
    "binaryThresh": 0.5,
    "activation": "sigmoid",
    "hiddenLayers": [
      16
    ]
  },
  "trainOpts": {
    "activation": "sigmoid",
    "iterations": 1000000,
    "errorThresh": 0.001,
    "log": true,
    "logPeriod": 100,
    "leakyReluAlpha": 0.01,
    "learningRate": 0.001,
    "momentum": 0.1,
    "callbackPeriod": 10,
    "timeout": "Infinity",
    "beta1": 0.9,
    "beta2": 0.999,
    "epsilon": 1e-8
  }
}
