{
  "type": "NeuralNetwork",
  "sizes": [
    4,
    8,
    4
  ],
  "layers": [
    {
      "weights": [],
      "biases": []
    },
    {
      "weights": [
        [
          2.12467360496521,
          0.599837601184845,
          3.259227991104126,
          -3.2106683254241943
        ],
        [
          -1.0815441608428955,
          2.108323335647583,
          0.46755334734916687,
          -1.6798397302627563
        ],
        [
          2.1383485794067383,
          -2.318821907043457,
          -1.1603575944900513,
          1.4192304611206055
        ],
        [
          0.5988989472389221,
          1.71975839138031,
          -2.4297409057617188,
          -0.05243993178009987
        ],
        [
          0.602564811706543,
          1.0034689903259277,
          -0.27862319350242615,
          -4.150022506713867
        ],
        [
          -2.6452136039733887,
          -1.8184621334075928,
          0.4200643301010132,
          2.403308391571045
        ],
        [
          -0.8907379508018494,
          0.2513507902622223,
          -0.15735968947410583,
          2.734130859375
        ],
        [
          -0.046607568860054016,
          -0.17732107639312744,
          0.6060155630111694,
          -2.4589924812316895
        ]
      ],
      "biases": [
        -1.34798002243042,
        0.25334271788597107,
        -0.47571855783462524,
        0.28148776292800903,
        0.08795195072889328,
        0.47764426469802856,
        -0.01736828312277794,
        0.07220493257045746
      ]
    },
    {
      "weights": [
        [
          2.9947266578674316,
          -0.6935495138168335,
          2.036750078201294,
          0.8625071048736572,
          2.492889404296875,
          -3.7223117351531982,
          -2.079730272293091,
          0.720991313457489
        ],
        [
          1.214178204536438,
          2.506685733795166,
          -2.9414188861846924,
          1.910949945449829,
          2.275071144104004,
          -2.3639748096466064,
          -0.758629322052002,
          0.3169238567352295
        ],
        [
          4.3400702476501465,
          1.180807113647461,
          -2.0760767459869385,
          -2.744323968887329,
          0.6896872520446777,
          -0.48457071185112,
          -1.0629408359527588,
          1.6332130432128906
        ],
        [
          -0.189383864402771,
          -0.7734261751174927,
          0.5797752141952515,
          -0.23380014300346375,
          -2.7086899280548096,
          0.4418448209762573,
          1.9098237752914429,
          -1.8451565504074097
        ]
      ],
      "biases": [
        0.07610708475112915,
        -0.6858295202255249,
        0.08451175689697266,
        0.05002478510141373
      ]
    }
  ],
  "inputLookup": null,
  "inputLookupLength": 0,
  "outputLookup": null,
  "outputLookupLength": 0,
  "options": {
    "inputSize": 0,
    "outputSize": 0,
    "binaryThresh": 0.5,
    "activation": "sigmoid",
    "hiddenLayers": [
      8
    ]
  },
  "trainOpts": {
    "activation": "sigmoid",
    "iterations": 100000,
    "errorThresh": 0.003,
    "log": false,
    "logPeriod": 10,
    "leakyReluAlpha": 0.01,
    "learningRate": 0.001,
    "momentum": 0.1,
    "callbackPeriod": 10,
    "timeout": "Infinity",
    "beta1": 0.9,
    "beta2": 0.999,
    "epsilon": 1e-8
  }
}
